//Numpy array shape [100]
//Min -0.140541896224
//Max 0.150771528482
//Number of zeros 0

#ifndef B2_H_
#define B2_H_

#ifndef __SYNTHESIS__
model_default_t b2[100];
#else
model_default_t b2[100] = {0.1093766317, -0.0123337870, 0.0807478428, 0.0858669654, -0.0599603392, 0.0518332012, -0.0537999943, -0.1080331355, -0.0166805275, 0.1219577938, 0.0433711149, 0.0351546593, -0.0011696636, 0.0276837721, -0.0215053298, 0.0520811304, 0.0215760544, -0.0527087525, 0.0501445346, 0.0257061571, 0.0535646565, 0.0365297236, -0.0196639318, 0.0381606482, 0.0922767743, 0.0304511338, 0.0402646996, 0.0967417657, -0.1182818264, 0.0615746528, 0.0389075913, -0.0040329774, -0.0967228413, 0.0639971122, 0.1003317013, 0.1054340824, 0.0741218701, 0.0341074876, 0.0886431932, -0.0343704484, 0.0969013125, 0.0340257548, 0.0085235573, 0.0217530634, 0.0562230572, 0.0354039185, -0.0591633171, 0.0868179277, 0.0400064401, 0.0132836243, -0.0466695018, -0.0067217899, 0.0262989625, 0.0221981946, -0.0222593285, 0.0189042669, 0.0688515604, 0.0919582695, -0.0242962707, 0.0032509279, 0.0249803420, 0.0112419333, 0.0023881409, 0.0110599101, -0.1405418962, 0.0295607708, -0.0593444072, 0.0265958346, -0.0536740609, 0.0607841760, 0.0531199835, 0.0457419753, 0.0144501459, 0.0029370110, 0.0289160348, 0.1023189723, -0.0139816022, -0.0383745246, 0.0002260011, -0.0121925622, -0.0369927511, 0.0368074328, 0.0461836085, 0.1507715285, 0.0341618769, -0.0189553238, -0.0741373822, 0.0678172037, -0.1110637337, 0.0251414441, -0.0163610689, 0.1448838115, 0.0552899502, 0.0604596213, -0.0537000336, 0.1022155955, -0.0499638431, 0.0158187784, 0.0274023954, 0.1091365740};
#endif

#endif
