//Numpy array shape [100, 50]
//Min -0.649687111378
//Max 0.556054174900
//Number of zeros 0

#ifndef W4_H_
#define W4_H_

#ifndef __SYNTHESIS__
model_default_t w4[5000];
#else
model_default_t w4[5000] = {-0.0571738631, -0.0776838139, 0.2096839845, 0.2225382179, -0.0874922648, 0.2833286822, -0.2091861218, 0.0559130497, -0.0010740694, -0.0526016355, 0.2841123343, 0.2643527687, 0.1368813217, -0.0550205261, 0.1171933934, -0.0917363316, -0.3654241860, 0.0300846081, 0.0442187898, -0.1911646426, 0.1987369508, -0.0434610657, 0.0917607173, 0.1765433699, 0.0071257874, 0.1115810052, 0.3851336539, 0.2503978014, -0.2387213707, 0.2095963806, 0.3399423659, -0.0982407182, 0.0963502377, 0.1559697986, 0.1297453046, -0.1838652194, -0.1108614504, 0.1778737009, 0.0726768970, 0.0797481909, 0.1269733608, 0.2756844461, 0.4321659803, 0.1253453791, 0.2081536055, -0.0429200679, -0.0300849676, -0.1717131436, 0.3060477078, 0.0777676776, 0.2398975492, -0.0942287222, 0.0787114501, 0.0081513552, -0.0393031053, -0.1678079367, -0.1390222460, -0.1711360812, 0.2196875513, -0.0170088708, 0.0856912509, 0.0957267880, -0.1794930398, -0.0209257677, 0.1518729478, 0.1467242986, -0.0057687755, -0.0205144547, -0.0527497083, -0.1218538210, -0.1240348890, -0.1470490098, -0.2040977329, -0.0680980682, -0.0784156024, -0.2411350012, -0.0383964665, -0.0372396745, -0.2646953166, -0.0420854874, -0.2416851223, -0.0599577650, 0.0985661596, 0.0553127714, -0.1392371655, 0.1240199655, 0.0680720583, 0.0686625689, -0.0696154237, -0.0680684298, -0.0780325159, 0.0079499912, 0.0696158111, -0.1877574474, -0.1187148020, -0.0014998096, 0.1767331511, 0.0603204779, 0.1896874309, 0.0345501117, 0.2321516424, 0.1236738041, 0.4497704804, -0.1093218029, 0.1854460835, -0.0094670290, -0.1584669054, 0.2439381778, 0.2127277255, -0.3542058170, -0.1906862259, -0.1197862774, 0.1221487746, -0.2540566921, 0.0725632533, 0.3327630162, 0.0163037218, 0.0397884250, -0.1478622258, -0.1730948985, 0.1965584457, -0.1175087467, 0.3512656689, -0.0183655601, -0.1671977639, -0.0595090389, 0.0376692414, 0.1502226591, -0.0017778249, 0.0204302091, -0.2355361879, -0.1703329235, -0.2194193751, 0.1728400737, 0.1863861531, 0.0504145734, -0.1430634856, -0.0743969604, -0.1478646547, 0.2601611316, -0.2775832117, 0.0691287145, -0.0802092031, -0.4177880883, -0.0336059332, -0.0216624588, -0.2584711015, 0.1129861251, 0.2791361511, 0.0137768304, -0.0046275137, -0.2213134170, -0.1815636903, 0.2180041820, -0.0755873546, -0.1263207495, 0.2005573660, -0.0625426173, 0.2306241691, -0.4192127585, -0.1181762516, 0.1849654615, -0.0537272729, 0.0632761195, -0.0802612528, 0.0169456843, -0.0595433339, -0.0709432364, -0.0500990599, 0.2079513669, 0.2316751480, 0.0233789869, -0.0592839010, -0.1136028990, 0.0532504842, 0.0643757656, 0.0904514268, -0.0723552480, -0.2853596210, 0.2135185897, -0.1601537466, 0.0068222391, 0.0298179295, 0.2230563015, 0.0990727991, -0.1918492913, 0.0984755233, -0.0232298207, -0.0152016142, 0.1911108345, 0.2226746678, -0.0252952464, 0.2111473382, 0.2416176498, -0.0468873903, 0.1334191412, 0.2350035906, -0.1854243726, 0.2614543736, 0.1978940666, -0.0600317344, 0.1920950711, 0.1871257424, -0.0920102224, 0.1503772736, 0.0252561495, -0.1710879207, -0.2376901060, -0.1118527129, 0.0565226153, -0.3613273203, 0.0332939103, -0.0585862361, 0.1207424700, -0.0607908927, -0.1839733422, -0.1722294837, 0.1242082492, 0.0559366494, -0.2627064586, -0.0285405088, -0.2913642228, -0.0888211578, -0.1768671870, 0.0330575854, -0.2688722610, 0.3519962728, -0.0667112097, -0.1041861400, -0.0530071035, -0.1457341760, 0.1245692745, 0.2041154951, 0.0390256830, 0.1059927791, -0.0147197582, 0.0315457471, 0.2029029876, 0.0618202463, -0.1665777713, 0.0746862665, 0.0402411446, 0.0953280255, -0.2149022967, -0.1038611680, -0.2630718350, -0.0171364322, -0.0330625623, 0.0917290971, -0.0960128680, 0.1543454975, 0.1262857318, 0.0426992886, 0.0385950580, -0.0873549357, -0.0845291987, 0.3316613436, 0.1621762216, 0.0260688867, -0.1364534646, 0.0771611929, 0.1233241409, -0.1663791239, 0.1107423827, -0.0095073935, 0.2332528830, -0.0195026994, -0.1900629252, 0.0596244000, -0.3500376046, -0.1276005059, 0.0423860326, 0.2936076224, -0.1496592462, 0.1912330538, -0.3541479707, 0.1129816100, -0.1901363879, -0.0840275288, 0.0814932287, 0.3088764846, 0.1663477272, 0.0212159008, 0.0715700462, 0.1497761160, 0.0543824174, 0.1467347294, 0.0870577618, 0.1014378667, 0.1081512868, 0.1188559681, 0.0994312018, 0.2887727618, 0.1179927662, 0.3371443450, -0.1905443668, -0.0667374805, -0.1790759265, -0.0543452539, -0.1732097417, 0.1818010807, 0.0851736292, 0.1469728947, -0.1861082762, 0.2425797135, 0.0230702218, -0.0664883927, -0.0898013860, 0.2103235424, -0.2375631928, 0.0229207445, -0.0590868704, 0.1876764745, -0.2432910055, -0.0133538926, -0.0708796605, -0.1056543365, 0.1443112642, -0.0381296165, 0.0115223965, -0.3291406333, -0.1806169301, -0.2503193915, -0.2508036792, 0.0870619640, -0.0691010579, -0.1981910914, 0.0185687151, -0.0467896089, -0.2335440516, 0.1628619730, 0.1513789296, -0.2060481012, 0.0494756401, 0.1483626813, -0.0904067382, -0.2052358836, -0.0645750538, 0.0067338874, -0.0038559588, -0.0144844661, -0.2193555832, 0.1132062525, -0.0394500308, 0.0127324536, 0.0174282752, -0.0057398700, 0.0016051995, -0.0345504805, -0.1420502365, 0.0191053618, -0.1429330111, -0.0480325036, 0.2680379152, 0.0483052433, -0.0332164988, -0.2489865869, -0.1380074322, 0.1316347867, -0.0217918251, 0.1745192111, 0.0635349825, -0.1608189940, -0.2905311584, 0.2578979135, -0.2570453584, -0.2812763751, -0.3146626651, 0.1193295494, 0.1635116935, 0.2549586892, 0.2500593364, -0.1288937181, 0.2452885807, 0.2703734934, 0.1354604512, 0.1030523330, 0.2894383967, 0.1784371287, 0.1754859686, 0.0280536693, -0.1877833754, -0.1364837289, -0.1081772521, -0.1185865328, -0.1851629317, 0.1061793342, -0.0896221623, 0.4344483912, -0.2708730102, 0.2764808238, 0.0805408880, -0.1341597885, 0.1009272486, 0.0371798724, -0.1729387194, 0.1660677642, -0.0473751239, -0.0389007851, 0.0729999915, 0.0542913973, -0.0273480956, -0.1128897220, -0.2603237033, 0.1488534212, -0.2288506925, -0.3281013370, 0.2165487260, 0.1274556965, -0.3299938142, 0.2177821696, -0.1098435298, -0.1984057724, -0.6151906848, -0.2215651274, 0.2619266212, 0.1081297547, 0.0977474600, 0.2176659256, -0.0225844029, 0.0205577146, -0.0416941270, -0.4193269610, 0.2342078686, -0.0219657049, 0.2689842880, 0.2759419382, -0.0574429221, -0.0856959149, -0.2688846886, 0.3080067039, -0.2540210485, 0.0382656679, 0.2662117183, 0.3461159468, 0.0524442866, -0.1781162173, -0.2429735959, 0.1034936011, 0.1404434592, -0.0724393353, 0.2120172679, -0.0636380762, -0.2184775174, 0.2092467099, 0.2983083427, -0.0441156998, 0.0274106618, -0.1810346693, -0.0404837467, 0.2777698040, -0.2279941142, -0.1500887275, -0.1634951085, 0.1369262338, 0.1093318090, 0.1122706160, 0.1172301918, 0.1239474565, -0.1882072985, -0.0556131378, 0.2355243415, -0.0385594070, -0.0260420647, 0.1130946726, 0.1036558449, -0.0082938224, -0.0546781346, -0.1892621070, -0.0513945967, 0.1378223449, 0.1158346683, 0.1215566024, 0.2347835004, -0.3094230294, 0.0854902416, 0.1648160070, 0.0194540694, -0.0851019397, 0.1908972412, 0.0590867326, -0.0997135937, -0.1034791619, 0.1523255855, -0.2208202928, -0.0076903645, -0.2098020613, 0.0267354995, 0.2319276035, 0.0924185961, 0.0009180878, 0.1434414387, -0.0363488384, -0.2266242653, -0.1524226516, -0.0075050076, -0.0848392472, 0.0657842234, 0.1611935198, 0.1359229237, -0.2274763882, -0.1403399110, -0.1775162369, 0.1274544895, -0.1511262953, 0.0907406509, 0.0917067453, 0.0715313479, -0.1150668189, -0.0191104449, -0.2083681822, 0.2247697711, -0.0029564584, 0.2194909155, -0.0355431698, -0.0584981292, -0.0565053076, -0.2263151705, 0.1778772622, 0.1993535608, 0.1995898336, 0.0817383155, 0.3476662934, 0.1218218580, 0.1009204760, 0.0202946439, 0.0173872244, -0.0854064971, -0.1845463216, -0.1860936582, 0.2467316091, 0.1343673766, -0.0415196232, 0.1111638471, -0.2940267026, 0.1324321926, -0.1596181691, 0.0716300309, 0.0631179512, -0.1964715272, 0.0656446293, 0.2064430416, 0.1523476839, 0.1712750047, -0.1502549797, -0.3442622721, -0.0798258185, -0.1449268460, 0.0062230560, 0.1014700234, 0.3157752752, 0.2783085704, -0.0922270417, 0.0821638852, 0.1093331948, 0.2949842513, -0.0028103413, 0.2546323836, 0.2824627459, -0.2789449394, 0.1196965724, 0.0199611094, -0.4165448248, 0.0702685490, 0.0685916319, -0.1808093786, 0.1399618238, -0.2380801737, -0.1866204143, 0.1765058339, 0.1092399359, 0.1203141659, 0.2154943943, 0.1232565045, -0.3284936547, 0.0822678953, 0.2789958119, -0.1297773272, 0.0137649700, 0.0068428596, 0.2888216972, 0.1719265580, -0.0739087313, -0.1414711475, -0.0504405014, -0.0051732454, -0.0384124927, 0.0289859120, -0.0685899556, -0.3225944936, -0.0390956476, -0.0006329233, 0.0927017406, -0.0120043224, -0.0759019032, 0.0969770849, -0.0385274924, -0.1097408533, -0.6496871114, 0.0997080430, -0.0813163444, -0.1121218204, 0.3012968004, 0.2548382878, 0.0057144118, 0.2226621956, 0.0092118578, 0.1676834822, 0.0758097619, 0.3407925367, 0.0250471607, -0.2644974589, -0.0859922841, -0.0313743353, -0.3092314005, -0.3802971840, -0.1493879855, -0.2684451938, 0.0668236390, 0.2331237644, 0.0111585651, 0.3156920075, -0.0713107362, -0.1785316914, 0.1325245202, 0.1443677694, -0.0720475167, 0.0549063273, -0.1309023350, 0.0095523559, -0.0678457469, 0.2873490155, -0.1003978848, 0.3326868713, 0.1601717472, 0.0560873449, -0.0721212476, 0.1702498645, -0.2745751143, -0.1483888924, -0.0478949994, -0.3803073764, 0.2605220675, -0.4010864496, 0.1688533127, 0.2066874951, -0.3022787273, -0.1175344661, -0.3278780878, -0.2556605935, 0.1739913076, 0.0692161024, 0.1046366096, -0.0539223552, 0.2432193756, 0.1058580801, 0.0723939016, -0.0694119185, -0.0054420270, 0.1190828681, -0.0918442830, -0.0520743802, -0.1633461863, 0.1161402762, 0.0352130085, -0.0919431299, -0.1648371220, 0.0409938917, -0.2508854866, -0.0320871435, -0.1191363633, 0.1016155258, -0.0187730454, -0.2612760961, 0.1250968426, -0.2002934068, -0.0413437821, 0.0275560450, 0.0903115124, 0.1696614176, -0.2947363257, 0.0524552613, 0.0237563588, -0.0939912274, -0.1705454886, 0.0662026629, 0.0542497411, -0.0153682278, -0.1326674819, -0.0321184918, -0.2869521379, -0.0001307170, -0.0032698696, -0.1211820543, 0.1536567658, 0.0684241354, 0.0714802295, 0.0593384728, -0.0747718066, 0.1147053987, -0.1697225124, 0.0231328979, 0.1128455326, 0.0805778056, 0.3251307607, 0.0161569472, 0.1811520457, 0.1839000285, 0.0377768129, 0.0206557009, -0.0201979727, 0.0526734181, -0.1821985990, -0.0885637030, 0.3051398098, 0.0023238633, -0.0908676311, 0.0128894486, 0.0552388951, 0.1789786071, 0.1041055620, 0.1471546143, 0.1602662802, -0.2468970120, -0.3620917499, 0.1958832890, -0.1116699874, -0.1990611255, -0.0350871757, -0.0798674226, -0.1344056875, 0.0742085874, -0.2342394888, -0.2057963163, -0.1926886439, 0.2809544504, -0.0819582567, -0.1554254591, 0.2289538682, -0.0767460242, 0.0436429679, 0.1200094074, -0.2308959216, 0.1487163156, -0.2158170938, -0.0846002772, 0.0392858349, 0.0922620595, -0.1937159151, 0.0218340345, 0.0558735542, -0.1085646152, 0.0576798655, -0.0756714419, -0.0850531608, -0.0763204768, 0.0027502403, 0.1932303756, 0.0769458041, 0.2417962402, -0.0870557204, -0.0510593057, -0.3407970071, 0.0831032693, 0.1791011095, 0.2011159658, -0.0833936110, -0.1211864352, 0.1458052546, -0.3115081191, 0.2304755598, 0.1379452944, 0.0585934408, -0.1471585184, -0.0262096338, -0.2757076025, -0.3028835952, 0.0956022367, 0.2305790782, 0.0954893827, -0.0334334671, 0.0367671326, -0.2161503434, 0.1915987283, -0.3181667924, 0.2658948302, -0.1824499518, -0.0364394523, -0.0420518890, 0.1014149860, -0.0194058530, -0.2769275606, 0.2152723521, -0.2451578230, 0.2758997083, -0.0148222214, -0.1109322608, 0.1366756111, -0.1893181503, 0.0216914471, -0.0166920740, 0.1538196355, -0.0851927549, 0.2408711612, 0.1207747236, -0.0972683579, 0.0235209260, -0.0663267225, 0.2142428607, 0.1961697638, -0.1498640031, -0.2078233808, -0.3872497380, 0.1008108854, 0.1694317162, -0.2348040193, -0.1934168935, -0.2322611362, -0.0842110440, -0.2017925382, 0.1331198961, -0.0287526678, 0.0595349930, 0.1217116416, 0.0820300132, 0.0624824613, 0.1957809180, 0.0629159734, 0.2882482708, 0.0791067481, 0.3347776234, -0.1940350235, 0.0053898715, -0.1611009538, -0.0020561127, -0.2166720182, 0.0019532805, -0.1212503538, 0.4049843252, 0.1161856949, 0.2775958180, -0.0417657718, 0.2228914350, 0.1558650434, 0.2871821225, 0.1172279716, 0.0388435274, -0.2027443498, -0.0777146742, -0.0169522054, 0.0147460382, 0.0973943770, -0.0933267102, -0.0526095107, -0.0491118543, 0.1866724491, -0.1418964565, 0.1502892524, 0.1761565506, 0.1719981879, 0.0399164185, -0.1245345026, 0.1567630470, -0.3140668571, 0.1361052543, -0.0219235346, -0.1719276756, -0.0601320490, -0.2309674770, 0.1390218437, -0.2321267128, -0.0009337753, -0.2535755038, 0.2284422815, -0.0116901435, 0.0909943953, 0.0843222514, 0.1082158536, 0.2262557894, 0.0366509855, 0.1504023820, -0.2430246770, 0.0967449993, 0.0558515936, 0.2652573287, 0.1417736411, -0.1001906246, -0.3157132268, 0.1464602053, 0.0666295215, 0.0373959281, -0.0911629573, 0.1106489003, -0.1975676119, 0.2675879598, -0.1087698787, 0.1729960293, -0.1743028164, 0.0541224889, -0.0800018087, -0.1418245137, -0.1707407087, -0.0527915470, -0.0558438189, 0.0368968248, -0.0773943886, 0.1986375302, -0.1741692722, 0.1118355691, -0.1277904660, -0.1060699821, 0.1758399457, -0.0645888448, -0.1054930165, 0.0831444561, 0.1386512965, -0.0042777113, -0.0709754676, -0.1490799487, 0.1448345780, -0.0048442436, -0.0751929283, 0.0909550637, -0.0025017567, -0.1502529234, -0.2726612389, 0.0744348913, 0.1406917721, -0.1535173357, 0.0230225679, 0.0112235434, 0.0713511929, 0.1697295159, 0.0426322743, 0.2112329900, 0.0229339916, -0.2347940654, 0.1763625592, 0.0345577858, 0.0927820876, 0.2131884396, 0.1273400486, 0.0464651287, 0.1207791343, -0.1261419207, 0.0206522718, 0.0688642859, 0.0398803502, 0.1698538810, 0.1080897227, 0.0450153276, 0.0487484746, -0.1177665293, -0.0144874891, -0.3745154738, -0.0462911949, -0.1201669052, 0.0432253778, 0.2829827070, -0.1903924942, -0.0157210175, 0.1240221709, 0.0991893858, 0.2299153805, -0.0197092500, -0.2881508470, 0.0547471270, -0.0890385062, 0.1867498606, 0.0131097520, 0.1115220040, 0.1863923669, 0.1074787751, -0.2301700860, -0.0230115950, -0.0278003179, 0.0101520149, 0.3303564489, 0.0705704838, 0.1076009795, 0.1809899807, 0.1216678470, 0.0108833434, 0.2110868096, 0.1327286661, -0.3819209337, 0.1071658731, 0.3169383705, 0.0140209664, -0.1397719085, -0.0815582350, -0.2282909155, 0.0885945931, -0.0945617855, 0.2562558055, -0.1285729557, 0.2553020120, 0.1946981400, 0.2669619918, 0.0535982251, -0.0780630335, 0.1065620631, -0.0475794263, 0.2139811814, 0.1867849231, 0.1364584416, -0.1556442678, 0.2938758433, 0.3790582120, 0.0072043850, 0.0888652503, 0.1048171148, -0.2453275919, -0.1661857814, 0.2046076059, 0.1171735898, 0.0256950855, 0.0195346847, 0.1661120206, -0.0320835076, -0.1628475934, 0.0950450376, 0.0279217903, -0.0782015026, 0.2269543111, 0.0056354450, -0.1465992182, -0.1319049299, 0.0053032897, 0.0528432876, 0.1259121001, 0.0709645972, 0.0510227382, -0.0003284315, -0.1381018162, -0.0392955616, -0.1008725613, 0.0658978373, -0.1239182726, 0.3710436225, 0.1384605169, -0.0352822617, 0.2138171494, 0.0865342766, 0.2197859585, -0.1603554338, -0.2287354916, -0.2609164417, -0.1229806170, -0.1385932863, 0.2030935138, -0.0791746229, -0.1517172605, -0.0093500279, 0.2613606751, -0.1082887128, 0.2095660418, -0.1657573879, 0.0607653111, 0.1236137301, 0.1908918321, 0.0235856622, -0.0816856027, 0.0809361637, 0.1047160104, 0.0452779904, 0.1417577416, -0.2015741467, -0.1939304471, 0.0591633432, -0.1888901144, -0.2158724070, -0.1682781279, -0.2513021529, 0.1473078430, -0.1095188856, 0.0537171178, -0.0697679520, -0.3143990636, -0.0554780811, -0.1412871927, -0.0463140197, -0.1506443918, -0.1125156209, 0.0057679517, 0.1930554807, -0.2349112481, 0.1152542979, -0.0735249668, 0.0532805137, 0.0800599009, 0.2052885741, -0.0501005724, -0.1146925315, 0.0219580457, -0.1674898416, 0.0125312032, -0.0475350842, 0.0143157225, 0.1622424722, 0.0519240238, 0.4012636542, -0.0399270542, 0.2724786997, 0.1622960269, 0.1816352159, -0.4304753542, 0.0344691649, 0.1562432200, 0.0530284792, 0.0693370476, 0.0734803751, -0.0772300363, -0.0029927357, 0.1513001323, -0.0015980289, -0.1130675450, -0.2949759960, 0.0884512141, 0.1438958645, 0.4134929478, 0.1485649347, 0.2449204177, -0.0164836198, -0.0167060718, 0.0768559799, -0.1468475908, 0.1843999624, 0.0732082874, 0.0270716138, -0.2972395420, 0.0692788363, -0.1832497865, -0.4690759480, 0.0873555541, -0.1851477772, -0.0841264874, -0.3176952302, 0.3509088755, -0.3461565971, -0.0810468495, -0.3023016453, -0.4030551910, 0.1453443319, 0.2091990560, 0.1379837394, 0.1427258849, 0.0199353546, -0.0617225729, 0.2604782283, -0.0741833597, 0.0958748087, -0.0510471389, 0.1937269717, 0.1058909744, 0.0532948337, 0.0650127679, -0.1108326018, -0.0764219686, -0.3155716062, 0.1572656333, -0.0807216391, -0.0043970561, -0.1540203989, 0.0162862893, 0.1914945990, -0.0804122686, 0.2209682316, 0.1675933450, 0.0319110714, -0.0949492007, -0.1461274326, -0.0038772731, -0.0752598941, 0.0180464722, 0.1861770749, -0.1891428381, 0.1555484831, -0.1638741195, -0.0120399166, -0.1671628803, -0.3304176927, -0.1571179777, 0.0772956312, -0.0424118638, 0.2818427384, -0.1645095944, -0.0467227176, 0.1575886458, 0.2626426518, 0.0586582944, 0.1103347912, -0.0358360447, 0.2734460235, 0.0677709058, 0.0214842930, 0.2081476003, -0.0695983469, 0.1858108342, 0.0614297912, 0.2849377394, 0.0784395114, -0.0392700918, -0.0605715625, 0.2026548237, -0.1084170565, 0.0580869652, -0.0233888291, 0.2693239450, -0.2464119047, -0.0271942914, 0.2877674699, -0.0613077953, -0.1625200361, 0.1606304497, 0.2036435306, 0.0699583367, -0.1456430405, -0.2308016419, -0.1543884873, -0.1540216357, -0.1447626054, -0.2313849330, 0.1805543602, 0.2320649773, 0.1984858066, 0.0279850475, 0.1520906985, 0.0706218034, 0.0594324581, -0.3182041943, 0.1605413109, -0.0798279643, -0.0156754367, 0.1220792532, -0.0948452875, 0.0029596733, 0.1702836007, 0.0493796356, -0.1423742324, -0.1813520789, 0.1217468977, 0.0427330509, -0.0218281392, -0.2350745350, -0.0253707208, -0.1198833138, -0.1031245813, 0.0922552645, 0.1858775020, -0.0395912342, -0.0136133702, -0.0346360430, -0.0748641640, 0.1093786433, -0.2398307920, 0.1807676852, 0.1895827353, 0.0854096860, -0.2023131549, -0.3473203182, 0.0699636340, 0.0087305745, -0.0069621624, 0.0002807344, 0.0913095176, 0.0821455643, -0.0730065852, 0.0682885423, -0.1987384707, 0.2448262870, -0.2119223028, 0.2673297226, -0.2108830810, -0.0274582580, 0.0020190715, 0.1334248483, 0.2162147909, -0.0880960003, 0.1228811294, -0.1472824663, 0.1435505152, 0.0280437693, -0.0011153488, -0.0167622361, 0.0032275640, -0.1552965194, -0.1355800927, -0.1981651485, 0.2188628316, 0.0504554100, -0.0298914239, -0.0042272573, -0.0236231610, -0.0207137465, -0.0350516438, -0.0259411652, 0.1872866154, 0.1861324161, 0.0198048726, 0.1249085963, 0.2572770417, 0.0345785581, 0.2805783153, 0.2880178988, -0.1737709641, 0.0624352619, -0.1609583199, -0.1117911860, -0.1064662039, 0.0144075528, 0.2243822515, -0.1445224881, 0.0093995817, 0.2854962349, 0.0169586204, -0.3237689734, -0.2569884360, 0.0214275941, -0.2385236919, -0.1003497466, -0.2114201188, -0.0172294397, 0.1192217991, -0.2045961767, -0.1567465961, -0.0800873637, -0.3105140030, -0.1883267015, 0.0829494447, -0.1062675565, -0.1052966192, -0.0421064608, -0.2297006100, 0.1615328491, 0.2310667783, -0.2142533213, -0.1736739874, -0.0603348464, -0.1763222218, -0.1164921448, -0.1493917257, -0.1586539447, -0.0216840766, -0.1264947206, -0.0176846236, -0.1831656843, 0.1628816575, -0.1308166683, 0.2321450561, 0.0400914550, 0.1577071995, 0.0081004100, 0.1951532066, 0.2269704044, 0.1717562675, 0.1173207983, 0.1064034998, -0.0375953652, 0.0109536201, -0.0654434115, 0.0096253352, -0.1104094833, 0.1191669852, 0.2435612381, -0.1042497829, 0.1758840531, -0.1141693518, 0.0153560471, 0.0603143238, -0.1684177816, -0.0917985588, 0.2244193256, 0.1874403507, 0.2353521585, -0.3421398401, 0.0366729163, -0.2262256593, 0.1223753318, 0.1715467721, 0.0659753382, 0.1792059541, 0.2207733542, 0.0648548007, -0.0223256629, 0.1055141389, 0.0567200333, 0.1051623970, 0.2201183438, -0.0653196275, -0.0267290324, -0.0690036714, 0.0459003188, 0.0607710369, 0.1858583391, -0.1165318638, 0.0570319258, -0.2036695331, 0.2314523607, 0.0444420986, 0.3316546977, 0.1004654542, 0.3793103099, 0.2827357352, 0.0970522165, 0.1442400217, -0.0360320248, 0.5486413836, 0.1969547570, 0.0861230269, 0.0566828884, -0.3151312470, 0.0310198348, -0.2252114266, -0.0654304922, -0.1110793576, -0.2978409529, 0.0744785741, 0.0968427211, 0.0512727499, -0.1254918426, -0.1877261400, 0.0292059761, -0.0791203603, 0.0707395524, 0.0948330909, 0.1685899049, 0.1273658127, 0.1140410453, 0.0996204689, -0.0459313095, 0.1836928874, -0.2036298960, 0.0588911138, 0.1457213908, -0.2550540268, 0.0690653473, -0.0146347582, 0.0161915030, -0.0620165728, -0.0016449890, -0.0879623070, 0.2141128480, 0.0081246262, 0.0965086743, 0.5081678629, -0.2721920311, 0.1424686611, -0.3405573070, -0.3051369786, -0.0542802364, 0.3072142005, -0.0221308451, 0.1838840693, -0.3059103191, -0.0710602477, -0.2346878052, -0.0887159035, 0.0027740188, 0.1266529709, 0.1220989078, -0.2363744080, 0.1282995343, -0.3848963082, 0.1667855382, 0.1789346486, -0.1514206827, 0.1409772038, 0.2147072107, -0.2090050876, 0.4448101223, 0.2814667821, 0.3778302372, -0.0092882114, 0.1225293577, 0.1836054623, -0.2438820451, 0.2893629968, 0.0694985539, 0.1805793196, 0.0808634311, -0.1544722468, -0.4864113629, -0.0059475712, -0.0612233654, 0.0515236408, 0.1466126889, -0.1202522293, 0.2223031223, 0.1159449294, -0.1417683363, 0.0993306711, 0.0593119413, -0.1009277105, 0.2582050264, -0.1277718395, -0.2219459862, 0.0263227709, 0.3331549466, 0.2180046886, -0.1122713760, -0.2812092602, -0.1374785453, 0.2727764845, -0.0082383044, 0.0516825877, -0.0929417089, -0.0649513230, -0.0931513682, -0.0568392836, -0.0307564717, 0.0862162337, -0.1083647013, 0.1500524580, -0.0201603007, 0.0493093878, -0.0522557050, 0.1426303536, -0.0650271103, 0.2647197843, -0.0264083687, -0.1284360439, -0.2792911828, 0.1447762102, 0.0889999196, -0.2177761644, 0.0251600333, 0.1856898367, -0.2507241666, 0.0362093560, 0.1292126775, 0.0220911019, 0.1744616181, 0.0962250903, 0.1420872658, -0.0739259198, -0.1541756988, 0.2218953222, 0.1752971709, 0.0762619227, 0.3702668250, 0.0785240605, -0.0979571939, 0.2203633338, 0.0714225024, 0.1297098994, 0.1371718794, 0.0714023188, 0.0428617150, -0.0868237093, -0.0936882272, 0.1672173738, -0.2160490006, 0.0731464997, 0.1252889335, -0.2472029775, 0.0997027382, 0.1026454568, 0.0146695832, -0.1763793379, 0.0832328275, 0.2342424691, -0.0830681771, -0.0059645250, 0.2575661838, 0.0845275521, 0.2134283781, -0.2771242261, -0.0959279388, -0.0657886788, -0.1365207434, 0.1794359237, 0.0465728268, -0.1262513399, 0.0336361527, 0.0501460060, -0.1428666264, -0.1740214825, -0.1040201336, 0.0437699705, 0.2051195502, -0.1348566115, 0.0104207704, -0.0218613017, -0.1174533814, -0.0493674390, 0.1479389966, -0.1209941655, 0.1809016168, -0.0922242180, 0.2763327658, 0.2060166746, -0.1870293468, 0.3448649645, -0.2253725082, -0.2808751166, 0.1651589572, -0.1167687923, -0.0452760719, -0.1207038015, 0.0393360928, -0.2057681531, -0.0709634349, -0.0873253793, 0.1511256248, -0.0128518464, -0.2533429265, 0.1982668042, -0.1672625691, 0.1364925504, -0.1185168400, -0.0480998866, -0.3034301698, 0.2202511281, 0.1999036968, -0.2455330491, -0.2294177711, -0.1578806788, -0.1840641946, 0.1879839152, 0.1816556603, 0.0275130458, -0.0347793363, 0.2639637291, -0.2536464036, 0.0220381524, 0.2220530957, -0.1891663820, -0.1225434542, 0.0908216536, 0.0029358517, 0.1754703075, 0.1553021073, 0.1670862734, -0.2467863113, 0.1579506993, -0.1557457894, 0.1495767236, 0.2199587375, 0.0180845931, 0.2193096727, -0.0307025500, 0.0307420325, 0.1682228595, -0.0898203328, 0.2144343257, 0.2069038749, 0.2356854826, -0.3586366475, -0.1018592045, 0.2162414640, -0.2546843588, -0.3410951793, 0.0368042476, 0.0005714658, -0.0974296108, 0.1745913029, 0.2399493605, 0.2198839486, 0.0230225455, 0.3059582114, 0.3127684891, -0.0535422787, 0.1611354798, 0.2107740343, -0.1422942132, 0.1536673754, -0.1825052649, -0.1640622467, -0.1359130591, 0.1262691468, 0.0168374293, -0.1619757712, -0.0088097956, -0.1738783121, -0.2421094179, 0.1600600630, 0.0571517944, -0.2102549076, -0.0480945371, 0.1249402240, -0.0084519116, 0.2349947840, 0.1329077482, 0.1468684077, 0.0320808627, -0.0504818037, 0.0757475495, -0.0062203822, 0.0584198125, 0.1261450499, -0.0148862088, 0.1617066860, 0.1883343160, 0.0502422005, 0.3888899386, -0.0320550725, -0.0502413101, -0.2653074265, -0.0202880651, 0.1842755079, 0.0623990633, 0.1790793836, 0.0968771055, 0.1873201281, 0.1659084260, 0.1983529776, 0.1758168787, 0.2416063398, 0.1736894846, 0.1429624707, -0.1509105861, 0.3485253453, -0.0089438669, 0.1507884860, 0.2150328308, 0.2114414722, -0.1677088886, 0.0927419141, 0.1409918517, -0.1329544783, -0.0581206903, -0.0013198656, -0.3026486337, 0.1309334040, -0.1633886546, 0.1164801121, 0.2390770167, -0.0218657572, -0.2645508647, 0.0020439038, -0.0324089937, -0.0471528471, -0.1386083364, -0.0409951471, 0.0081735207, 0.0486048460, 0.2594128847, -0.2851857543, -0.0294340886, 0.0332418345, -0.2084935755, -0.0540391207, -0.0382565595, -0.0782031119, 0.1026431769, 0.1422891170, -0.0117598390, -0.0689311251, -0.2654673159, 0.2198102325, 0.2495313585, 0.1798239052, 0.1462148428, 0.0807332769, -0.0994527340, -0.4202543497, -0.0956705064, -0.1276487708, -0.0430652425, 0.0810000598, 0.0078438455, 0.1474403143, -0.2184222639, 0.1110474765, -0.3454014957, -0.0587735996, 0.2331217229, -0.0349734537, -0.1768350601, 0.3197562099, 0.0540701859, 0.2353535891, 0.0729509220, 0.1564837843, -0.1183654889, 0.0239137821, 0.0111746024, -0.2662797868, 0.0354793444, 0.0517999977, 0.1421632916, -0.2308880240, 0.0145172793, -0.0027311356, 0.3170780241, 0.0342301205, 0.0495860875, 0.1535746008, -0.1623719931, -0.1076874435, 0.1475112885, 0.2432307601, -0.1099071577, 0.2005563080, 0.2474743277, -0.2241327465, 0.0256074499, -0.0713468343, 0.1027576551, -0.4892068505, -0.1712919921, -0.1841439456, -0.0590506904, -0.2373135984, 0.1698074341, -0.1221355572, -0.0980461538, 0.0048663449, -0.0145843355, -0.0098122805, 0.2120176107, -0.0574910156, 0.2633597255, -0.0868642405, -0.0769607276, 0.3695890605, -0.1382499933, -0.1670337021, 0.4818951786, 0.4699714184, 0.1574395299, 0.3768554628, -0.1931557357, 0.1143039688, 0.2364722937, -0.1005643383, -0.0627634302, -0.0379253775, 0.0928228721, 0.0768439919, 0.1180150136, -0.1297032833, -0.2001795322, -0.3376940191, -0.1558216810, 0.0144501207, 0.1086363047, 0.0932841823, -0.1978440434, 0.0159415361, -0.1290681958, -0.1957020313, -0.0329102278, -0.2269884646, -0.1055771336, 0.2578206062, 0.0719637275, -0.0437906757, 0.2886233032, -0.1343748569, 0.2429577708, -0.4008840621, 0.2177039087, -0.1871147901, -0.1578758508, -0.2365763634, 0.1217116714, 0.3161256611, -0.1556399614, 0.0769031644, -0.0942889303, -0.2713972330, 0.0663234964, -0.0913707837, -0.0907493457, 0.0958732665, 0.0565825179, -0.0654679090, 0.0083404984, 0.0563356578, -0.1035612002, 0.3179470301, 0.1135913879, -0.1413773298, -0.1173526868, -0.0502862670, 0.1811345369, -0.1858345866, 0.1681699902, 0.0840758979, 0.3204603195, 0.3839383423, 0.3891946971, 0.3052149415, -0.0865350589, -0.1710310727, -0.1017224863, -0.0149689708, 0.0047028475, 0.3846599758, -0.1664987952, -0.1503364146, 0.0401909761, 0.2673016191, 0.4007278383, -0.2136317343, 0.2727661133, -0.3429159820, -0.1414209008, -0.1620572954, 0.3645740151, -0.0850636587, 0.1266008317, -0.2976810634, 0.2026676387, 0.0758041218, 0.0254434552, 0.1362505555, 0.2216009498, 0.0432167277, 0.2379028946, -0.0497913100, 0.1294461936, -0.3431090415, -0.1232873350, 0.0254066195, 0.0359644480, 0.0639879853, -0.2533046603, 0.1187716350, 0.1198151782, 0.3941082656, 0.2783282697, -0.0489885956, 0.2141899168, 0.1478170753, 0.1906355023, -0.1484642923, 0.2186056077, 0.0567350909, 0.0222362410, -0.1442889869, 0.1388345063, 0.3519797623, 0.1492688507, 0.1340176910, -0.1827330142, 0.2207431197, -0.3911407590, -0.2570784390, 0.1426595598, -0.2311923206, -0.3172416091, 0.2196842432, -0.2305630147, -0.3188198209, 0.0731800944, 0.1992327720, 0.2931918502, 0.0313056335, 0.1808944196, 0.3323137462, -0.0109618902, -0.0418235399, 0.0761742666, 0.2066353112, -0.2134137005, -0.1970718801, 0.2177595347, -0.1933275312, 0.0227583814, 0.0470465273, -0.2708560824, 0.0985516757, -0.3010615110, -0.1660555303, -0.0406340435, -0.0883665755, 0.0195073504, 0.0523226969, -0.0834592804, 0.0836119875, 0.0227758642, 0.0926998183, -0.0701981708, 0.2844742239, -0.0219496805, -0.1955585182, -0.0639617443, -0.0098654674, 0.2352384925, -0.2442609221, -0.0187572427, 0.2461680919, 0.2706576884, -0.2144412398, 0.2370577604, -0.0713436007, -0.0018865759, -0.0686900765, 0.0231319163, -0.0042591128, -0.2515236437, -0.2650565803, -0.2219349295, 0.1229215562, -0.1613399088, -0.0346834622, -0.0838747174, -0.0623013377, -0.0347664095, 0.1159931198, -0.0512425266, 0.2934475839, 0.2003267109, 0.0931643173, -0.0223718546, 0.2035247535, 0.3492111266, 0.0653172582, 0.0818177536, -0.1888255775, 0.0060150023, -0.1255895048, 0.1724795550, -0.1701325029, 0.0222466420, -0.0818875954, 0.0033425563, 0.0965131372, 0.0688480213, 0.0830192119, -0.2981940210, 0.1251469105, 0.0048340396, -0.2081027627, -0.1088120937, -0.0800065994, 0.1644489467, -0.1981494725, 0.3446778953, -0.1688734740, -0.0288733840, -0.2645908892, 0.0741735548, -0.1361657083, -0.0152833359, -0.0630984232, -0.0031808519, -0.0922052413, -0.3051082194, 0.2145677656, 0.1553226560, 0.2063933760, 0.1194933653, -0.2474577129, 0.1431017369, 0.1078331918, 0.0410809144, 0.1698703915, 0.0439835824, 0.1688395441, 0.1657539457, 0.0085248174, -0.1115519553, -0.0722794011, -0.0069642188, 0.2388246059, 0.0845007524, 0.1787559241, 0.1534059197, -0.4022818804, -0.0654639751, 0.1660704762, 0.0396215692, -0.1651906669, -0.1968430132, 0.0704182312, -0.3758284450, -0.1991293430, 0.1294928044, -0.0817213058, 0.1561038196, 0.2266989201, -0.4150686264, -0.0853210986, -0.1393728554, 0.1398534477, 0.1273386776, -0.1890217364, -0.0061039831, 0.2820261717, -0.0666045323, 0.0652904883, 0.0255754907, 0.1044141650, 0.1428131461, 0.1643456817, -0.1171213835, -0.3329168260, -0.1067693606, 0.1815945208, -0.1506232321, 0.1841484010, 0.1737809479, -0.0877077952, 0.0551692881, 0.0660218522, 0.0570103936, -0.0593967475, 0.1774651855, 0.2509682477, -0.2836476266, 0.2883793414, -0.3182327449, 0.0814451203, 0.1346783042, -0.1175678000, -0.1699193418, 0.0241510868, -0.2223443091, 0.3021657765, -0.0668564066, -0.0055904514, -0.0646172985, 0.0830021799, 0.1475746185, -0.0669865310, -0.2020452023, -0.1190322936, -0.0385154746, -0.0560965613, -0.0477854088, 0.0453149937, -0.0181753300, -0.0066393055, 0.0735361353, -0.1841633618, -0.2054716647, -0.1572204381, -0.0857678503, 0.0140494201, -0.2366147041, 0.0054424177, 0.1603208482, -0.0107157147, -0.0326265544, -0.3338805139, -0.1372840405, 0.1546048820, -0.1927299052, -0.1296831518, -0.0609315261, -0.1747452617, 0.1583209932, 0.0107018985, -0.2253340632, 0.0851740092, 0.0501466841, 0.1631693095, 0.2330074459, 0.2394019514, 0.1438192725, 0.2178934216, 0.1890929341, 0.1704669744, 0.0823934227, 0.2483763695, 0.1615204811, 0.0285131838, -0.0340825468, -0.0016352352, -0.1663707048, -0.0142434267, 0.0117741739, 0.2437801361, -0.0381361023, 0.0202389956, -0.1744208038, 0.2307702005, 0.0990264565, 0.1688887924, -0.3472231627, -0.1419631839, -0.2229249328, 0.1637368500, -0.1107464582, -0.4228325486, 0.2312080711, -0.1352330744, 0.2230887711, -0.1119737178, -0.1086130664, -0.2840841413, 0.2621223330, -0.1186946556, -0.0321219601, 0.0291502476, 0.1043236777, -0.1750595868, -0.2441167235, 0.0044093546, 0.1576425433, 0.0442442559, -0.2042031139, -0.1346055120, -0.0563672930, 0.0033761307, -0.0267801248, -0.0847238600, 0.0781416893, 0.2421619147, -0.3652990460, -0.1315461099, -0.0524173416, 0.0602065027, 0.2947106659, 0.0560782291, -0.0319509618, -0.0104038315, -0.1057473421, 0.0309094563, -0.1573612392, -0.2657833099, 0.2321100384, -0.2662926912, -0.1599009186, -0.1522524804, -0.3308583498, -0.1430562586, 0.1414442807, 0.0664225444, -0.0010984115, -0.0093673132, 0.0320008583, 0.3342881501, -0.0289379060, 0.0960755572, 0.0271350332, 0.1665461808, -0.0396577604, -0.1249409318, 0.3444045484, 0.1718692034, -0.0157403164, -0.0952716619, 0.1057710648, -0.0203598347, 0.1227679849, -0.4224856198, 0.3510201275, 0.0009504827, -0.0690537766, 0.1602148712, 0.0389123894, -0.2256449610, 0.1810444444, 0.0033125479, -0.2968997061, 0.0322093666, 0.2429918796, -0.2091731429, 0.1230606958, 0.0165229477, -0.0299144797, 0.0117736040, -0.0844471529, 0.2103515565, 0.1888074279, -0.2680270076, 0.1728522629, 0.0414638706, 0.1645345241, 0.2345632166, 0.1474728435, 0.0035916129, -0.2525067925, 0.2849194407, -0.1282834709, 0.2256716341, 0.0307957716, 0.3082450628, 0.1476934254, -0.1543084532, -0.2140993178, 0.1477522254, -0.1374659538, 0.0519455597, 0.0400090106, 0.0323202573, -0.3307226896, 0.0368900448, -0.2188969553, 0.2276388109, -0.0425109304, -0.2202558070, -0.2394962609, 0.1157450601, -0.1047651246, 0.1766609550, 0.2551167607, -0.1516751200, -0.0329541638, 0.2046197951, 0.0978209078, -0.1119746789, -0.1117587239, -0.1517931670, 0.2848485112, 0.0521426499, -0.0563631430, -0.0106818015, 0.0946277976, -0.1625567973, -0.2012278736, 0.0645588338, -0.1268205047, 0.1478088051, -0.1823790073, -0.0585142151, -0.0305772424, -0.1465007216, -0.0454796441, -0.1222086176, -0.0268372670, -0.1385056674, 0.1306899339, -0.0516395941, -0.0551347509, -0.0465225726, -0.0638939440, 0.1435587853, -0.1192533374, -0.0432798155, -0.1772968471, 0.1571999639, 0.2384875417, -0.0988368690, 0.1903261095, -0.2641591132, -0.1107470989, -0.0245076455, -0.1443849951, 0.2184027135, -0.0804663971, -0.1234167293, 0.1027676836, -0.1133392975, -0.0145572396, 0.2212298959, -0.1217266247, 0.1281483024, -0.2217262387, 0.0063898684, -0.1859982461, 0.3190702200, -0.0767486617, 0.0033611732, 0.1015279368, 0.2987040579, -0.1489890367, 0.1451680809, -0.0143160503, 0.1289129555, -0.3830305338, -0.0261413455, -0.0208685510, 0.0199163612, -0.0975657478, 0.1479799151, 0.0556916520, -0.0551300421, -0.1101775542, 0.1848231852, 0.1775691658, -0.0615901500, -0.1302385926, -0.1345680803, -0.0479684994, 0.1495282352, -0.0304425862, -0.1548215747, 0.0359774195, 0.0711416751, -0.3006588221, -0.1056175753, -0.0306316931, -0.2324795127, 0.1953574717, -0.1969715357, 0.0346562490, 0.1244048327, 0.0496091768, 0.1059835032, -0.0030946187, 0.0927705467, -0.0015268276, -0.1566743106, 0.3128738701, -0.0319828726, -0.0058835070, 0.2215267420, -0.2004685551, -0.1542366892, 0.2483523488, 0.2573280036, -0.1028739810, 0.2049635649, -0.0449686572, -0.0034844370, 0.3053961992, 0.1175789684, -0.0653801337, 0.0967694297, -0.1312336922, -0.0932007208, 0.0068926164, 0.0941599086, 0.0923301354, -0.3476720452, 0.1896888018, 0.0103596589, 0.2066642791, -0.1788956523, 0.1664845049, -0.0855654404, 0.0262088906, -0.0537718050, 0.1667315364, -0.1198213324, -0.0882775486, 0.1475466043, -0.0318041407, -0.0381683446, 0.0539099462, -0.1428401023, 0.1341363192, 0.1198473796, -0.2589394748, -0.0141103128, 0.0731860027, -0.1482965499, -0.1493160874, 0.1061107963, 0.1355338246, 0.1288505793, 0.0644096956, -0.1597584188, -0.1623519510, -0.0915223435, 0.0154602733, -0.1254688650, 0.0908407420, 0.0502724126, -0.2255607098, 0.0214732680, -0.1702472568, 0.1112142578, -0.0827434734, 0.1896305233, -0.0548181757, -0.0954861119, 0.0757815391, 0.1731277853, -0.1913462877, 0.1685934216, -0.0939000174, -0.0719577298, -0.2348017991, -0.3886235058, 0.4015682042, 0.1903619319, 0.2708375454, -0.1516956389, 0.1107318923, 0.0885682926, -0.2112918794, 0.0544995405, 0.3485782444, 0.3461280465, -0.0075010415, 0.3174735606, -0.0791611671, -0.1264640689, 0.2421552688, 0.2111543119, -0.2344978899, -0.0077897008, -0.1617598832, 0.1549592763, -0.1109998524, 0.1846487075, 0.0357121937, -0.0426221602, -0.0340420045, 0.0809079409, -0.1818436384, -0.2483323365, -0.2385223359, -0.0026067700, 0.1468311995, -0.1355513781, -0.1456158906, 0.0098314090, -0.1205440387, 0.0976079106, 0.1066322252, 0.0303158704, -0.0243526474, -0.1188807636, 0.0354881398, -0.0629834086, 0.1340463758, 0.2206377387, 0.1576087326, 0.1131393835, 0.0121776443, -0.0088605899, 0.1547195464, -0.0460922420, -0.0195568744, 0.1059865132, 0.0932328850, 0.2332175821, -0.1671551019, 0.0447009988, 0.0610310361, 0.1049054936, 0.1814315468, -0.2226677239, -0.2689100504, -0.1286915094, -0.0620640591, -0.1078187004, -0.2526559234, 0.1328070760, -0.2033674270, -0.2109545171, -0.1102838665, -0.0372250974, -0.1676430255, 0.1787429452, -0.3487088084, 0.0128800748, -0.0949180126, 0.0503915437, -0.2017935067, 0.0965478420, -0.0805698261, -0.0452524684, 0.0300598796, -0.2877344191, -0.1752118170, 0.1476767808, -0.0224820394, 0.1671880037, 0.1453138441, 0.1321318150, 0.1944448948, 0.0736248791, -0.3266939819, -0.1256864071, -0.2578116059, 0.0689042583, 0.0368586592, -0.3367319107, 0.0123484759, 0.0600604601, -0.0600030161, -0.0116332555, 0.3145551682, -0.0236626416, -0.2807336152, -0.1191330329, -0.0897493958, 0.1452915370, -0.1818163544, -0.2212780118, 0.2116689384, 0.3485469818, 0.1362062693, 0.0599361472, -0.1059092581, -0.1241762340, 0.0764054656, 0.0713648945, 0.2990065217, -0.0613315143, -0.0970757231, -0.1819614321, 0.0636635721, 0.0612128675, -0.0438830666, -0.0917206779, 0.0085160807, -0.0350298882, -0.2234738767, 0.3868420124, -0.0260672849, -0.1920273006, 0.0919674635, -0.0110889245, 0.0272343475, -0.2357225418, 0.2638157308, -0.0561371595, 0.3014894128, 0.1234238148, 0.2257002592, -0.0811966211, -0.2134739757, 0.1058556288, -0.1493780315, -0.0272612590, 0.0645531118, -0.2237796336, 0.1359148473, 0.1840045154, -0.1382452846, 0.0656342432, -0.1519694477, 0.2225790918, 0.0522007905, 0.2002081424, 0.1512100697, 0.0310541950, 0.0145143792, 0.0381831452, 0.2525093257, -0.1668698788, -0.1418759972, -0.0074551078, -0.2553153634, 0.0388971455, -0.0098465774, 0.1002594009, -0.1513896883, -0.2149195224, -0.1532487571, -0.1893599480, 0.2058861703, 0.1302881539, -0.1131774560, 0.1095911413, 0.2041462958, -0.2537618876, 0.1336017847, -0.2950333953, -0.0424253605, -0.1206868812, 0.0365873910, 0.0268790796, 0.0184512623, 0.1976189613, 0.0719774440, 0.1101218835, 0.0331082866, 0.1281463355, -0.0988959298, 0.3508187830, -0.1257305890, -0.0373663828, 0.2952130735, -0.1053215563, -0.3444066048, -0.1231463328, -0.3255686462, -0.1530031562, -0.1693189144, -0.3719781935, -0.0820566118, 0.0271054097, -0.2040860951, -0.2240809798, -0.1479754299, 0.0421880223, 0.1124701127, -0.0957446694, 0.2693930268, 0.1692935079, 0.0867849141, -0.3443746269, -0.0878290534, 0.1290347725, -0.0080593387, 0.2965132892, 0.3221483827, 0.0469324328, -0.0552487113, 0.0693175793, -0.0424233936, 0.1117975786, 0.2297702134, 0.1106382236, -0.3964318633, -0.0814240053, 0.1509358287, -0.0245032907, -0.3133310974, 0.0721515641, 0.0729359388, 0.2094536424, 0.1719513983, 0.1374205351, -0.0216606408, -0.0281278193, -0.1854378432, 0.0687719807, -0.1985284984, 0.1000970453, 0.1105696931, 0.0357094109, 0.1485222876, 0.1911147535, 0.0314864330, 0.1028739139, -0.1707677841, -0.1475974023, 0.1857868284, -0.0318789147, 0.0904387906, -0.0848153010, 0.0317660719, -0.1749480665, -0.0630717129, -0.1323462129, 0.0001141947, 0.0600079447, -0.0729809850, 0.1602775306, -0.1714345515, 0.1093421057, -0.1807694584, 0.0048195776, 0.1760846823, -0.1260561049, -0.1173318177, 0.1566766202, -0.0113525633, -0.1120776609, 0.1655118465, -0.0934720114, -0.1660358161, -0.0670512393, -0.1560377479, 0.1509559900, -0.0312706456, -0.1214971468, 0.1820310056, 0.0233301204, 0.1363271475, 0.1399893016, 0.1624597609, 0.1332112253, -0.1246115416, 0.0082222838, 0.0039187716, -0.1745591611, 0.0923050642, -0.1788686663, -0.1460364610, -0.0241103191, -0.0503943488, -0.0395614691, 0.0170320366, 0.1209761798, -0.1364076436, -0.0201804545, -0.0764612257, 0.0283174459, 0.0326541066, -0.2203901559, 0.1648061872, -0.1245855764, 0.1978340894, 0.0330821723, 0.0886509344, -0.1742150038, 0.0166006237, -0.1732553542, 0.1756085157, -0.0575284772, -0.0594546869, 0.1958313137, -0.1009186134, -0.0416084528, 0.2410392463, -0.0543266907, 0.2841836512, -0.2293462604, 0.0161369387, 0.0537243523, -0.0366343260, -0.0102191009, 0.1573274285, -0.0624508336, 0.1679773629, 0.1022374257, 0.1928863972, 0.0201362986, 0.0827654451, 0.1523274034, 0.0082128327, -0.0016677368, -0.1011170745, 0.1369405240, 0.1608044356, 0.2044811845, -0.1836757511, 0.0704178661, 0.1006009728, -0.1885352284, -0.0146398665, -0.0728467703, -0.0817915052, -0.0556851216, -0.0282840654, 0.1311511546, 0.0240168385, -0.0957468599, 0.1922679245, -0.1085532457, -0.1066439226, 0.0731725395, 0.0431121886, 0.0007960792, 0.0980398804, -0.0119921537, -0.0642835721, -0.0753454864, -0.1095072851, -0.0396998115, -0.1057512015, 0.1443620771, -0.0445228405, -0.0164970197, 0.2108987421, -0.0895146653, 0.0672562644, -0.1612007022, 0.1432498246, 0.1614926457, 0.1063313335, -0.1344819963, 0.1626121104, -0.0278268717, 0.0772272646, -0.2205528617, -0.0331887677, 0.2342453152, -0.0477379188, 0.0701877698, 0.1479123682, 0.1404808909, -0.0215581115, 0.1731067598, 0.2445560694, -0.1162468642, -0.0779639706, 0.2726916671, -0.1585111618, 0.1277811378, -0.0286682546, 0.2133024931, -0.2786470354, -0.1518467963, 0.2279977202, 0.1323463470, 0.1180043295, 0.1844382584, 0.1818686426, 0.1431001872, 0.1413361579, 0.2200462669, -0.0642294139, 0.1357176751, -0.2590694726, -0.2656691074, -0.0061119758, 0.0646129325, 0.1611824036, -0.1491371244, -0.0763740987, 0.2270448059, -0.2209547758, -0.0240323953, 0.0194292311, -0.1977019012, 0.0010981804, -0.2136396170, 0.2116436362, 0.1588325351, 0.1278704107, -0.0929153785, 0.0979749188, -0.2653821707, 0.1310278028, -0.1528238207, -0.0308056567, -0.1502451599, -0.1572609544, -0.0979829431, 0.0079028672, 0.0185369980, -0.1639075130, -0.0891991630, -0.1583789140, 0.2589332163, 0.1106778234, -0.3636883795, -0.2095426917, -0.2913862169, -0.2344037443, -0.1961963177, 0.2475868613, 0.0851276070, 0.1104321703, -0.1858821362, 0.3469978869, 0.1558070034, 0.2443936616, 0.2144819051, 0.4389551580, -0.2468689978, -0.1070141196, 0.1282851845, 0.2281854749, 0.0335417055, 0.0665444657, -0.3911665678, -0.0055593695, -0.0361440741, -0.1170679778, -0.2196505517, -0.0532115139, 0.3713176250, -0.1903311610, 0.1480161548, -0.1295600384, 0.3312452435, 0.2186356336, 0.4657650292, 0.3041410446, -0.0006413173, -0.2006426007, -0.1003158316, 0.3209921718, 0.1023281440, 0.1390133798, -0.0455190763, -0.0541975610, -0.0129209515, -0.1643279195, 0.0633243099, -0.0997263119, 0.0884455517, 0.1808213890, -0.2440479249, -0.1571130008, -0.0906542987, -0.1163188741, 0.0592763573, -0.1296522170, -0.0236999840, 0.0140989497, -0.0626723394, -0.1151433885, -0.2114201188, -0.0305816140, -0.1304681301, 0.2499982566, -0.0071019372, -0.0399110205, -0.1767647415, 0.3272839785, 0.1737378687, -0.1331250370, -0.0941988081, 0.0310436785, 0.2515968084, 0.0696186349, 0.1187339798, -0.0337381996, -0.1919890642, -0.0506150313, 0.0403590575, 0.1437837631, 0.2213820219, -0.3069506586, 0.1568940580, -0.0533593222, -0.2176320255, 0.1732143611, -0.0750683248, 0.0200216342, -0.1614125222, 0.0177811924, 0.0484995730, -0.0738873854, 0.0840850547, 0.1758381128, 0.2466877401, -0.0181777868, -0.1889011562, -0.0921964124, 0.0047380258, 0.2183834463, 0.2005776018, 0.3400277793, 0.2207079530, -0.1593092680, 0.2071534842, -0.6452696323, 0.3195548356, 0.2904534936, 0.1672063023, 0.2129116505, -0.2046645731, 0.0098702675, 0.2140291035, 0.1026943773, -0.1554863006, 0.0286592022, -0.1385446340, 0.4373134077, 0.1550904065, 0.0093048010, 0.2649914920, -0.3127317429, -0.0179543626, 0.0443882123, 0.4107710719, 0.0947239101, -0.1051524803, -0.0518188886, -0.0281336214, -0.2839635015, 0.2506105304, 0.1269975007, 0.0180620831, 0.0807226077, 0.1367861778, 0.0135143781, 0.2045263350, -0.0894314796, -0.1817265153, -0.3019110262, -0.0724316463, 0.2934433520, -0.1598385423, -0.0890418068, 0.0441362374, -0.0136526618, 0.1271958053, 0.1258866340, -0.1906051040, 0.0972869024, 0.1805837452, -0.0135662332, 0.0107364571, 0.1754508018, -0.1626527756, -0.2902369797, -0.2918212712, -0.2164729387, 0.0193488840, -0.1862195283, -0.3204264343, -0.2486151904, 0.0569790341, 0.1408151835, -0.1743989438, -0.2109059095, -0.0236717593, -0.1877963990, 0.0974308252, 0.0049893819, 0.1331461966, 0.2776387930, 0.1344148070, -0.3411902785, -0.1459001005, 0.1177965477, -0.2997966707, 0.1597470343, 0.3018214703, 0.2626392543, -0.0187739953, -0.2614501715, -0.2345165312, -0.2231193334, -0.2527121902, 0.4286174476, 0.3396182060, 0.1298951507, -0.0634912103, -0.5047667027, 0.2587472200, 0.0715084672, -0.0719211996, 0.0052291956, -0.1222908646, 0.0887229443, -0.1605612338, 0.0942072123, 0.2030223161, 0.2686137259, 0.0964976400, 0.2755429447, -0.0217935983, -0.0170427635, 0.2978110015, -0.0597736426, -0.0483172610, 0.1366973519, 0.2722466290, 0.0236824919, -0.2188346088, 0.0937936604, -0.1064674780, -0.0889678672, 0.0606598705, -0.0089109056, 0.1896997541, 0.2635309100, 0.1354136914, -0.0972406939, -0.2470987141, -0.1897276789, -0.0085873287, -0.2031838000, 0.1560659856, 0.1569056809, -0.2059752196, -0.0412525013, -0.2605636418, 0.0061915237, -0.2775022984, -0.0165784527, -0.1206494272, 0.1318400055, 0.0551566184, -0.2721759975, -0.0491124913, 0.4552906752, -0.0195962843, -0.0937854946, -0.2009472400, 0.0896183848, -0.0607596301, 0.1656118780, 0.0766041428, -0.0795585439, -0.1383015662, -0.0466289967, -0.1859340221, -0.1847284287, -0.0407052264, 0.1706563681, -0.2530372143, -0.0526176505, -0.0125801647, 0.0683138818, 0.1475535929, 0.1351725608, 0.2399808615, -0.1447172612, 0.0111399302, 0.0852542296, -0.2050688863, 0.1932688802, -0.0018407198, 0.1236161441, -0.1779552996, 0.0063713104, 0.0670669451, 0.0649104044, -0.1234540641, 0.1631417274, 0.0095920246, -0.1055083573, 0.1615438163, 0.2537626922, -0.1867024750, -0.1955786943, 0.2021531463, -0.0445396155, 0.2577998340, -0.0188132171, 0.2148796469, 0.1629510075, -0.1342867166, -0.0396582708, 0.0467029214, -0.0843059272, -0.2575690746, 0.1620208323, 0.0658578500, -0.2560799718, 0.1016897559, 0.0465487838, -0.0280738100, 0.0584628321, 0.0771736577, 0.0097176414, 0.1292630434, 0.0105486521, 0.0053584664, 0.1107707396, -0.0593243651, -0.2204831541, 0.1946711987, -0.0762042403, -0.1480145156, -0.1263280511, -0.0841433853, -0.2321528643, -0.2838591337, 0.2584140003, -0.0278720651, -0.0648078471, 0.2693645954, 0.0132934339, 0.0738280863, -0.3105325401, 0.1654446870, -0.0274757333, -0.0197501034, 0.2011853009, -0.0243782233, -0.1321840733, -0.0537406504, -0.0062475409, 0.0331075713, -0.0124897975, -0.1012667194, -0.0261248238, 0.1416230202, 0.2020709664, -0.4354225993, 0.2029379308, 0.0020571637, -0.2592151761, 0.0927911475, 0.1734621078, -0.2316440195, 0.1499148607, 0.2083045244, -0.4830324054, -0.0540473871, 0.0888928920, -0.1135559976, -0.2196115702, 0.0802538022, 0.0847315118, 0.2018626779, 0.1926717907, -0.1599438936, 0.2008073926, 0.1487696022, 0.2900322974, 0.1507339478, -0.1618079096, -0.1800567210, -0.2113727182, 0.0772056282, -0.1580315232, -0.1598077714, -0.1969425827, -0.1024874896, 0.2206995636, 0.0203076508, -0.2476183921, 0.1370520741, 0.0302688591, 0.2538498640, 0.2686676383, 0.0357908942, 0.1085275039, 0.1252660900, -0.3178055286, -0.2010140866, 0.1746839732, 0.0956015736, -0.0902403072, 0.3128204346, 0.1544214785, 0.2221966237, -0.2577218413, 0.0955932066, -0.0291154124, -0.3106351495, 0.2566889524, 0.2245855331, 0.0147299133, 0.0067621344, -0.2509023249, 0.1395577937, -0.1111561656, 0.1069041342, 0.2061906308, -0.0609268956, -0.1484530419, -0.0821406022, -0.0098072235, 0.0977737978, 0.2102404088, 0.1732785106, 0.2614287436, 0.2197571546, -0.1893981844, 0.0029799584, -0.0857402757, 0.3683266640, -0.1714252383, 0.4161294103, -0.1378490627, -0.3769986033, 0.0306861121, -0.2302099913, -0.1674972177, 0.0727870762, 0.3322343826, -0.2890066206, -0.0187610593, 0.1333134174, 0.0071462221, 0.0400461406, 0.1359715164, -0.0758577064, -0.2525098920, -0.1703976095, 0.2399969846, -0.2277761400, -0.0534245111, -0.0621533282, -0.2271992117, 0.3123814166, -0.1267938465, 0.2532147765, 0.3144852817, 0.0630401894, -0.1346856505, 0.1110148057, 0.0964859352, -0.1570713669, -0.0814623535, -0.2219930589, 0.0600491613, 0.1397249252, -0.0123278443, 0.0021675806, -0.2743996382, 0.0379517823, 0.2009721398, -0.1335067004, 0.1343693733, 0.0046057026, 0.0131096942, -0.0587074608, 0.2055071443, -0.0111103123, 0.2535908818, -0.0182925649, 0.2927418053, -0.2481040359, 0.2882393599, 0.1157951951, 0.0969850868, -0.3189368844, -0.1249658391, -0.0748658553, 0.0945181921, 0.4216668904, -0.0930751339, -0.2841498256, 0.1850977391, -0.0374302231, 0.1768280715, 0.0817204565, 0.0793586001, -0.0449199900, 0.1093441918, -0.2206901759, -0.2343116254, -0.3705626726, 0.2046763748, 0.0372223221, 0.2089646012, 0.1221785322, -0.0538051650, -0.1461920440, -0.0260118060, -0.2549491525, 0.2251899689, -0.0992888883, -0.0913652554, -0.0286440458, 0.2248599231, 0.2003435642, -0.2384692729, -0.1392271817, -0.0232554581, 0.2668606639, 0.2822312713, 0.0510034151, -0.2473274469, -0.0861216560, 0.1529599428, -0.0456318073, 0.1069472656, 0.0987561569, -0.1956480443, 0.0189507492, 0.0912831426, 0.2390271723, 0.1926970035, -0.0750537738, -0.1017163992, -0.1435785145, -0.1454441845, -0.1484186798, 0.2180379331, -0.1431398243, -0.0806110874, -0.0845836625, 0.3078880906, 0.0633880347, -0.0011609244, -0.1543647051, -0.1425196975, -0.0341630541, -0.0492833629, 0.0770965517, -0.0600610748, 0.3182693422, -0.1592430025, -0.1382003427, -0.0463177375, 0.1374235302, 0.2782270312, 0.2269065082, 0.2924088836, 0.2848030925, -0.1170366630, -0.0409192182, 0.1897559762, -0.1177592799, 0.2841280103, 0.0751121864, 0.1200403720, 0.0442554727, -0.1285642982, 0.3258310258, 0.2394374311, -0.0562244095, 0.0929052681, 0.0033818309, -0.3380588591, 0.0897789225, -0.1339799017, 0.0888916999, 0.0379007012, -0.1583339572, 0.3518739939, -0.0585326217, -0.2132146955, -0.4103775620, 0.1895386428, 0.0547162294, -0.1399099231, 0.0101084812, -0.0650489926, -0.1656516045, -0.4338346422, 0.0621877536, 0.2588125765, -0.0568269044, -0.0413439907, 0.3217916191, -0.0050913361, 0.5560541749, 0.1994867921, -0.1821213067, 0.2199885547, 0.2015214562, -0.2315285057, -0.0480685681, 0.2162707597, 0.1970386058, -0.4712085724, -0.5690588951, 0.1554374099, 0.4950355887, 0.1414035559, -0.0576387979, -0.0385539271, 0.5468376279, -0.4238768816, -0.3476420045, 0.1585565507, -0.1010554358, -0.0709236637, -0.0588150173, 0.1736330986, -0.1030451208, 0.0668841004, 0.2626840174, 0.3409209251, 0.1226683930, 0.2390868813, -0.2501957715, -0.0972502902, 0.1187892482, -0.1809909791, 0.0477198027, 0.2010938525, 0.1662863940, 0.0866047293, 0.0442642048, 0.0678993762, 0.0619119518, -0.1330235749, -0.0091510219, 0.2680546939, -0.0666926131, 0.0085486956, -0.0283276774, -0.0513584428, -0.0985583588, -0.2305253595, 0.1188206077, 0.0323789716, -0.1097936332, -0.1769307405, 0.0093133189, 0.1164379567, 0.0197157618, 0.0956537575, 0.0096632894, -0.2253139019, 0.1244057864, -0.1629419774, 0.1228137687, -0.1205667630, -0.1303621680, -0.2256223708, 0.0163212959, 0.1976596117, -0.0033161424, 0.1017656997, -0.1666843146, 0.0399544872, 0.0932305157, 0.1446397305, 0.1447912902, 0.1297765970, -0.0301387291, 0.1372710317, 0.0560363494, -0.2781744897, -0.0431594625, 0.0198672023, 0.0979941860, 0.0739182010, 0.0077390000, 0.0623913519, 0.0425900854, -0.0478975251, 0.0992566943, -0.0032614302, -0.4028622806, 0.2086732388, -0.0079670195, -0.0953868181, -0.2024152726, -0.2840520442, -0.3268189132, -0.0602444001, -0.0785441920, 0.2364622802, -0.1091825739, -0.3054817617, -0.2709937096, 0.1332876086, -0.1875918806, 0.1244144887, 0.0802922174, 0.1966039836, -0.0885794759, 0.1287288815, 0.1834959090, 0.0599244535, -0.2241884768, 0.0035490554, 0.1116173044, 0.1838227808, -0.0651131570, 0.0082796579, -0.2378898561, -0.1825207174, 0.1070407405, 0.0150414063, -0.2061037123, 0.0869226530, 0.2557862997, -0.0625085458, -0.1175751016, -0.0110782981, -0.0364670493, -0.1888072342, 0.0520468801, -0.3103444278, -0.2651566267, -0.1749794036, 0.2694568932, -0.1155261323, 0.1023187861, -0.0633825436, 0.3160677254, -0.0667351708, -0.0087717455, 0.2524241507, 0.0201516077, 0.0988786742, -0.2503052354, 0.0950286612, 0.0290345792, -0.4273024499, -0.0840978771, 0.1705741733, -0.0670044869, 0.0186513886, 0.1100281999, 0.0177909471, -0.0962488651, -0.1479169279, -0.3627138138, 0.3167001903, 0.2549233139, 0.1170638204, 0.2875573337, 0.3522965908, 0.2361625582, 0.2556298375, 0.0542405359, -0.1165085658, 0.0468484499, 0.3733153641, 0.0643454567, -0.0230935961, 0.0150143504, -0.3111070693, 0.2405961305, -0.1808791459, -0.3304518759, -0.0122576933, 0.2036721259, 0.2125051171, 0.0508867167, 0.1509728283, 0.1212486848, -0.0449146740, -0.0517697260, -0.0380450152, 0.2659693956, 0.0289283246, 0.0332109593, 0.2190619260, -0.0188987125, -0.2093338668, 0.0459298827, 0.0583171882, -0.0553472377, -0.2042965293, -0.3766614795, 0.0912706032, 0.2446885109, 0.1066707820, -0.3395259380, 0.0232713856, -0.2309372276, -0.0899728984, -0.0491291359, -0.2172435671, 0.2664293647, 0.2504896820, 0.1883601099, 0.0363035426, -0.0599507578, 0.1403940171, 0.1553598940, 0.2596818507, 0.1467889696, -0.0105776368, -0.1422139853, 0.2357366979, 0.1081114113, 0.1411175281, -0.0690126196, 0.2037033588, 0.3703858852, -0.0209207367, 0.2625625432, 0.1495435834, 0.0766299367, -0.0658072904, 0.0668056384, -0.1780047268, 0.3546760678, 0.3262529373, -0.0458774641, 0.4947103262, -0.1924002618, 0.2815692425, -0.0815919265, 0.0490326248, 0.3540987074, 0.1161404401, 0.4850594997, 0.1806500703, -0.1747528613, 0.0499225892, 0.1231011674, -0.3130392730, 0.0220207796, -0.0146236084, -0.0137773575, -0.2773163617, 0.2654612958, 0.1622023731, 0.3932421207, -0.0467954129, -0.2671583891, -0.0708268136, -0.1541320533, -0.1819210947, -0.1487970799, 0.5325953960, -0.1026035026, -0.1617824286, -0.0356470905, -0.3664070368, -0.0218726676, 0.3212718666, -0.2232156843, -0.1167893261, 0.1208565161, -0.2104054093, -0.0125225019, -0.4074108005, -0.2655704618, -0.1275411993, 0.2180885077, 0.0978064761, -0.3221544921, -0.0213323329, -0.1857383102, 0.3150769472, -0.2080885619, 0.0713449940, -0.1774632186, 0.2284280062, -0.3583851159, -0.1097929329, -0.2629026175, -0.1146593019, 0.0376511738, -0.1210187376, -0.1061718315, 0.0945552066, 0.3381929994, 0.0011089521, 0.1041474789, -0.2158474028, -0.1939712614, -0.1723459214, -0.1058788672, -0.1342107952, 0.1416783482, 0.0329808891, 0.2254386693, 0.0270371325, 0.1891555041, 0.0340990610, 0.3222015500, 0.1747900695, 0.2762036324, -0.3184753358, 0.1635501981, -0.0131393746, -0.1539588720, 0.2522895634, 0.2222784162, -0.1484910101, 0.0441687591, 0.2906109393, 0.2766904831, -0.0641164407, 0.0329794921, -0.0270107109, 0.2477783263, 0.2051675171, 0.2846456170, -0.1789315045, 0.0130929304, 0.2409627140, -0.0536149926, -0.0257597007, -0.0137871820, 0.0001492030, 0.1580438912, -0.1086807251, -0.1509988755, -0.0782334134, 0.3276293278, -0.0218526479, -0.2396203429, 0.1543797255, 0.1921231747, 0.2131729126, 0.2776421607, 0.0351548009, -0.3961811066, 0.0856376365, -0.4184704721, -0.0202559829, 0.0858335271, -0.0563652031, -0.3448048532, -0.2309469134, -0.0978530496, -0.1980138421, 0.0534754843, -0.3705787957, 0.1595954001, 0.1504204273, 0.1614030153, 0.1608267725, -0.0542953573, 0.0423219129, -0.0710425228, 0.2658364475, -0.0638520867, 0.0949138775, -0.1872280538, 0.3265449405, -0.1311060786, -0.1532534361, -0.2993389070, 0.0292307362, 0.3483682275, -0.1044799909, 0.1328590661, -0.1829558164, -0.0726239905, -0.1306423396, 0.4718871713, -0.1962611228, -0.1589370072, -0.1212191433, -0.2741264105, 0.2183980346, -0.1997889280, 0.1168279722, -0.0978180394, 0.0505516231, 0.2979783118, 0.0874131173, -0.0383997113, 0.1848362088, 0.2648477256, -0.0113595957, 0.3845770359, 0.1638184339, 0.1116731614, -0.3918864727, 0.0059362329, 0.1713930219, -0.0890263170, -0.0488362052, -0.0016859672, 0.0432188958, -0.1096834615, 0.0452480465, -0.3435857594, -0.0325050242, 0.0021319841, 0.2529288828, -0.1822425872, -0.0018756557, 0.1059623808, -0.0537765659, -0.4220154881, -0.1840395033, -0.0040321834, 0.0532240495, -0.0477965176, 0.0150934653, 0.1175120622, 0.0730200782, 0.1684550494, 0.0309274327, -0.0811574608, 0.1325904876, 0.1537390053, 0.1138328537, -0.1101419553, 0.0990148187, 0.2440962344, 0.1344698817, 0.2411535382, -0.0615222566, -0.0050753369, -0.0299061630, 0.1577137411, 0.1424633116, -0.0670696646, 0.1089940518, 0.0604792349, 0.1638925672, -0.3341768682, -0.0296154302, -0.2576333284, -0.3038882315, 0.0673092827, -0.1456411034, -0.1877029985, -0.0660241544, 0.1764527112, -0.1667080671, -0.1314453483, 0.1409791112, -0.2026667893, -0.1661556512, -0.0078054615, -0.1307590306, 0.1318493634, 0.1166662276, 0.2613454461, -0.0396090634, 0.2274388969, -0.0225049853, 0.2916966975, -0.2868462503, -0.0522812009, -0.0909966007, 0.0036389951, -0.1627822369, -0.0033975898, -0.2193972468, 0.0012589713, -0.1866528541, 0.1396008581, -0.0309758112, 0.1407631338, 0.1831430197, -0.0832578763, -0.1566122025, -0.0360275358, -0.1063477397, -0.0561796986, -0.0238429513, 0.2151735276, 0.0336824805, -0.0005629960, -0.0625272393, -0.0144294752, -0.0996624008, -0.2705260515, -0.0894925371, -0.0195612032, 0.1015245616, -0.1548968256, 0.2041316479, 0.0348883457, -0.0610714257, -0.1012616754, 0.0507784486, 0.1431871206, -0.0779931098, 0.0986804515, 0.0800089985, -0.2497522533, 0.0687442571, -0.0738542899, 0.1210366413, -0.1032587439, -0.1076401323, 0.0077143386, 0.0225018431, 0.0946959034, -0.1824163795, 0.0247402415, 0.1921831071, -0.1569331288, -0.2412877679, 0.2379037738, 0.0487206280, 0.2468477488, -0.0372713245, -0.3016689718, -0.1219062433, -0.2382775396, -0.0084305778, -0.0905907154, 0.0201118886, 0.0331237465, 0.2148962915, -0.1875188053, -0.2493906170, -0.0193215813, 0.0745367780, 0.0235219598, -0.0258329194, 0.0242498666, 0.0856051967, -0.2280904800, 0.0899492949, -0.0872481018, 0.1675124168, -0.1497696489, 0.0404824652, 0.2522930503, -0.2509411275, -0.0974659622, 0.2265991867, 0.0346563943, 0.1947344542, 0.1079743505, -0.1601166427, -0.0835852101, 0.1353383958, -0.1217139885, -0.2330358326, -0.1834720522, -0.2512407005, -0.0668753684, -0.2150353938, -0.0085915364, 0.1831002086, 0.2350196242, -0.1770961732, -0.2210643142, 0.1928547472, 0.0134014310, 0.1690641642, 0.2372184396, -0.1804936677, 0.0567480810, 0.1381185055, -0.2362971306, -0.0081679681, -0.3291840255, 0.0607064702, 0.1577844173, 0.2819544077, -0.2207485586, 0.1811435074, -0.0171594061, 0.1036311090, 0.1734892130, -0.0831243321, 0.1974605322, 0.1918220818, -0.0340331383, -0.1028806791, -0.1677249074, 0.0693749636, -0.0865500420, 0.0353683457, -0.3840070665, 0.1135011315, 0.1142921895, -0.1096135154, -0.0708818287, -0.3028288782, -0.0720453635, -0.0597996265, 0.1617364585, 0.1451375484, 0.1288403124, -0.0170966219, 0.0980903655, 0.1635307819, -0.0960118696, 0.0985519886, -0.1277126968, -0.0913772061, -0.0232472960, -0.1546173990, 0.0631054714, -0.1834314764, -0.0720314682, 0.1084052920, 0.1310828477, 0.0949727893, 0.0739933252, -0.0866499767, 0.0708142966, 0.0405928157, -0.0619084686, 0.1780854166, 0.2195316702, -0.0074974527, -0.0576235093, 0.1537922174, -0.1148042232, 0.1767222732, 0.0488247350, 0.2403476983, -0.1265169233, -0.0898469239, 0.0937708318, 0.1283829063, 0.1831891239, 0.1004409567, 0.1560724676, -0.0452147052, -0.1699237972, 0.1478454769, 0.1971397400, 0.0680043250, 0.1732514054, 0.0893173590, -0.1607820243, -0.2208256871, -0.0497828946, 0.0892030522, 0.2249011099, 0.0655698255, -0.0797292665, -0.1274419129, 0.1062912419, -0.1871218532, 0.2758007050, -0.1919421554, -0.1819738597, -0.0532388613, 0.2783097625, -0.0314399116, -0.0839135349, -0.1851216257, 0.1287747771, 0.1710012406, -0.1472576708, 0.1017834544, -0.0220936518, -0.0907408595, 0.1432969272, 0.1926220059, -0.1045104936, 0.1064845473, 0.0579416491, -0.1811654419, 0.0535062924, -0.2663507164, -0.1435571164, 0.0355522707, -0.3197359145, -0.0378597267, -0.0405131653, 0.2039057463, 0.0099055022, 0.3949000239, 0.1745661199, 0.0096941618, 0.2188221812, -0.0467059836, -0.0060659582, -0.0837523043, -0.3240829706, 0.4485973120, 0.2793551087, -0.0008478510, -0.0962289944, 0.0242585987, -0.0173824299, -0.1706885099, 0.0241988227, -0.0445891917, -0.0781370252, 0.0899661556, -0.0227843933, 0.0396498926, 0.0013279894, -0.1944167167, -0.4938175380, 0.0653596744, -0.0277896877, 0.3177800775, -0.0054720859, 0.1991190165, 0.0625410601, 0.2998633981, -0.1662161499, 0.3629076183, 0.0724918991, 0.2494088411, 0.2933878601, -0.2457924187, 0.0772391781, 0.0178892389, -0.0445463024, 0.2822227776, -0.0296622775, -0.0686942339, -0.0696151704, -0.1942947954, -0.0820943564, 0.0085793678, 0.1898655295, 0.3589089811, 0.1744626164, 0.1731999367, -0.0800711513, -0.0407840200, 0.0309839677, 0.2697237730, 0.0599395782, 0.1481409967, -0.1130951643, -0.1404882371, 0.2337693870, -0.3320458233, -0.1938924491, -0.0738462135, 0.0301481467, 0.3089891076, 0.1473754793, 0.3523345292, 0.1962140352, 0.0994072258, 0.2183701694, -0.1460789144, 0.0444573201, 0.0056601656, 0.2627637386, 0.2907673120, 0.2424538285, 0.0220213048, -0.1851260960, -0.0699451119, -0.2716481686, 0.0071206531, -0.0127647510, 0.0642293468, 0.2212700099, -0.1747796535, 0.0698529184, -0.1634124517, -0.2858433425, 0.3538357615, -0.3410490155, -0.2564455867, 0.3160785139, 0.2362145036, -0.1380588859, 0.0952242762, -0.0378064550, 0.2252089679, -0.1382082701, -0.0528965592, 0.0596633106, 0.4285138547, -0.1160795987, -0.1351639479, -0.2008632123, -0.3979182243, 0.1241023540, -0.3336367011, -0.2605420947, -0.0479669198, -0.0079241069, -0.1452631354, -0.2181895822, 0.5091364384, -0.0472560078, -0.0567055605, -0.0864107236, 0.2397706360, -0.1784597784, 0.0776469484, -0.1135066748, -0.1675092578, 0.3444353044, -0.3162191212, 0.0750055090, -0.1159766465, 0.5095196962, -0.2732138634, -0.1293313205, 0.5510186553, 0.2817529738, 0.0820006132, 0.0649826974, -0.0982599407, 0.1163161024, 0.3267704844, 0.3269954622, 0.3397757709, -0.0371638313, 0.2775895298, 0.4657186866, 0.4305303991, -0.5177223682, -0.3134524822, -0.1449416578, 0.0573237129, 0.0381540991, -0.1357268542, -0.0970856845, 0.0485917330, 0.3018893003, 0.2253769785, -0.0790651962, 0.1414822936, 0.2048192322, -0.0561740063, 0.2823507488, -0.1793457419, 0.1220516190, 0.2208485603, -0.1890341491, -0.0338696577, 0.1202136204, -0.1638644636, -0.1882997304, 0.1281937808, -0.0815403536, 0.2973116338, -0.1155463979, 0.1560977548, 0.1613957584, 0.1489645392, 0.0629864335, 0.0396367349, 0.1224284694, -0.0151057011, 0.0635711253, 0.1164544076, 0.1018580645, -0.2887510061, -0.3415376842, 0.0847069696, -0.1044692174, 0.2771951258, 0.0100159533, -0.0082039656, 0.1029336527, -0.2066627294, -0.0645071641, -0.1021785662, -0.0631062314, 0.1093162373, -0.1229953468, -0.0662159324, -0.2878514528, -0.1652390063, -0.0519257262, 0.0909062847, -0.0883730799, 0.1794650406, -0.2923217118, -0.1055819988, 0.1562387496, -0.3167349994, 0.0213683117, -0.2022805214, 0.1175532192, 0.2412427366, -0.0740874857, -0.0086819446, -0.0284782052, -0.2218540758, 0.3526755869, 0.0176582783, -0.0361767970, 0.0633060187, 0.1086668894, -0.0265738331, 0.2674504817, 0.3879838884, -0.4271543920, -0.0121191479, 0.4917151332, 0.1407125443, 0.0965059549, -0.2048398554, -0.1275525242, -0.3602083921, -0.0945921317, -0.0287635867, 0.0374614932, -0.1840822250, 0.0276046712, -0.3943300843, -0.0077669960, -0.2055437267, -0.0698864982, 0.0144029520, -0.0109293386, 0.0953121856, -0.1816231757, -0.1052336022, 0.1730714440, 0.2646463215, 0.2356707752, 0.5055740476, 0.0765968859, -0.1451790184, 0.1163366735, -0.2680262923, 0.0274129473, -0.1534266770, 0.0672799274, -0.2234360278, -0.2158110589, 0.0236393865, -0.1492737383, -0.1506747752, 0.0117862066, 0.1612109989, -0.1296300888, 0.1663041413, 0.0490553603, 0.0539443754, -0.2363872528, -0.1336857080, -0.3069843054, -0.1476655602, -0.1653000563, -0.1797375530, 0.1131057367, -0.3091471195, 0.0425016880, 0.1075121984, -0.3036703169, -0.2078748047, 0.1323172152, 0.2783017755, 0.1245126650, -0.0112388954, 0.2171283215, -0.2306375951, -0.0444607772, 0.1058090478, -0.2645877302, -0.0522991940, -0.0260276627, 0.2215853482, 0.0651901364, -0.0834073871, -0.2240021825, -0.1697769165, -0.0971008018, 0.3928364813, 0.2042459548, -0.3358683586, -0.0982318893, -0.1753543913, -0.1483211368, -0.1683815718, -0.1966374665, -0.5114220381, 0.2478416860, -0.3079906106, -0.2260091603, -0.2639455497, -0.0952370167, 0.0859799311, 0.2784081697, 0.2111119777, -0.1802593172, 0.0612132363, 0.0042619617, 0.1550744921, -0.3226395845, 0.0141631849, -0.0018106258, -0.3131048083, -0.2228145897, 0.1037149951, 0.0545705259, 0.0858625099, 0.2724949718, 0.2372669131, -0.1141518429, 0.1776210517, -0.0639257580, -0.2911598980, 0.0848556533, 0.2152147889, 0.1426249295, -0.2231928706, -0.0380114578, 0.1730197072, -0.0446471423, -0.0089507774, 0.1517943889, 0.3891373873, -0.1001689658, 0.2289308459, 0.0449815467, -0.2525627017, 0.3054108024, 0.0754964277, 0.2225184739, 0.0192925110, 0.0377584882, 0.1329376847, -0.0248229168, -0.0618211776, 0.2050183862, -0.3244214654, -0.0670623630, -0.1030283645, -0.1505015045, -0.2186480910, -0.1466915011, 0.0131852319, 0.1903764457, -0.1379706413, -0.0103414273, -0.1031619385, -0.0289074760, 0.1199907959, 0.0920601934, 0.0369508006, -0.1319661289, -0.3549690843, -0.3737248182, 0.2797789872, -0.0074564726, -0.1180036813, -0.1024941057, 0.1784564555, -0.3360036314, -0.1046834067, -0.2333061099, 0.0228595678, 0.1368236095, 0.2967646122, 0.1420269310, -0.1937039047, 0.0580024123, 0.0975148007, -0.2228340060, 0.1891645193, 0.2679928243, 0.2467004508, 0.2839201093, 0.1142728776, 0.1677536815, 0.0676632896, 0.0507058315, -0.0218544323, 0.2852054238, 0.1558327526, -0.2160299718, -0.1618738174, 0.1673047692, 0.2530348897, 0.1723246127, 0.1367174983, 0.0098436922, 0.1706986576, 0.3915674388, 0.0217337906, 0.2359491289, 0.1454799771, -0.0360209681, 0.0853568017, 0.3057866991, 0.1160455868, -0.2818537354, 0.0367960967, -0.0526930168, 0.0322592556, 0.1665269434, 0.2201113552, 0.1038427651, 0.1144036204, 0.1146443188, -0.2397484779, -0.0361447483, 0.2322445214, 0.1588877589, 0.3090892136, 0.0100975372, 0.1248734146, 0.2020656168, 0.1901222616, -0.2916893363, -0.0206991192, -0.1003430188, 0.2159144431, -0.0024162855, 0.2078849971, 0.1618305743, -0.1941022575, 0.3109511435, -0.0847710967, -0.0303336829, -0.1966644824, 0.1757592857, -0.2577015162, 0.1871046871, -0.0345135443, -0.2705848813, -0.1047837213, 0.0404341593, -0.1309518069, -0.0054081501, 0.2991139293, -0.0803784132, 0.2499315739, 0.0181710664, 0.2029455453, 0.1572244763, -0.2516087890, 0.0520249531, -0.1608860940, 0.0109295957, -0.2582448125, -0.2420951724, -0.1262181103, 0.0061250380, -0.0860487595, 0.0367809758, 0.2522516251, 0.1284011751, 0.2990058959, -0.2304800749, -0.1207008734, 0.0434021279, 0.1014666557, -0.0910608396, -0.0437435284, 0.0026019728, 0.0029546216, -0.1006692499, 0.3715083003, 0.3913794756, 0.1292780042, -0.1992957145, 0.1424028724, -0.0642330721, -0.0350679159, -0.0893603489, -0.1202638671, 0.2627118528, -0.1763107926, 0.2305072248, -0.0834654570, -0.2753887177, 0.0364828929, 0.0744345486, -0.1990317106, 0.3630103767, 0.1752290726, 0.1419552863, -0.0888655335, 0.0357344374, -0.1672537327, -0.0891755298, 0.1624715775, -0.3033896685, -0.3699938655, 0.2669321895, -0.0024290578, -0.1689605713, 0.1011107489, 0.0920465738, -0.2324744463, -0.0824152529, -0.0497713499, 0.1456627399, -0.1866604090, 0.3876005411, -0.0122973258, 0.0718551651, -0.2173240781, -0.3610424697, -0.2757272124, 0.2662565708, -0.3237265348, -0.3092278540, 0.1486126781, 0.2273717523, 0.0157034323, 0.3271086812, -0.3772170842, 0.1090072915, -0.1786850840, -0.1118384227, -0.1275587082, 0.1524983197, -0.2360350043, -0.2504706681, 0.0077341869, 0.0708346739, -0.1533312947, -0.3045418262, -0.1272519380, 0.0136903301, -0.1989665031, 0.2200553566, -0.0082158893, -0.2804626226, 0.0808792040, 0.1735875309, -0.1778246760, 0.0441110693, 0.0016823194, -0.0385256745, -0.0040076645, -0.1546720266, -0.0530415326, -0.3495461941, 0.0004586465, 0.1993783712, 0.0261151474, -0.1368115544, 0.1329063177, 0.0035527286, -0.0486024134, 0.0631382316, -0.0187528729, -0.1425469667, -0.1739009321, 0.2142992020, -0.0765676275, -0.1180170178, -0.0999356359, 0.0506110787, 0.0778791532, -0.1094899401, -0.3066305816, -0.0773378760, -0.0323714837, -0.0397259928, -0.0326147676, 0.1615543962, -0.1335168779, 0.0852724537, 0.1452275217, -0.2226213068, 0.0245184228, 0.1511438787, -0.0766338706, -0.2153900713, 0.0946880281, -0.1186148226, -0.0669008046, 0.1897498071, 0.1884006560, 0.1319658309, 0.1401122212, -0.1438302398, 0.2035763711, 0.2273217291, 0.0591498464, -0.0283405315, -0.2065913379, -0.2168983221, 0.1901461184, -0.0060110795, 0.0126264514, -0.0460801907, -0.2930436432, 0.0905704126, -0.1073558256, 0.1113926172, 0.2591625452, -0.0865392685, -0.3669288456, -0.2813328803, -0.1779005975, 0.1592111737, 0.0246751364, 0.0576203987, 0.0891609341, 0.0421636812, 0.0985480249, 0.1834304929, 0.1707967371, -0.0923523605, -0.1564899832, 0.0583246872, -0.0029928121, -0.2481280267, -0.0596350767, 0.1114673242, 0.3247807324, -0.2263648957, -0.1626479626, -0.0179614034, -0.1514514536, -0.1664409488, 0.0714853629, -0.1949264407, -0.0905536041, 0.0326632038, 0.1646638215, -0.2391971350, -0.1132172346, 0.3346019387, 0.1001874804, -0.1222009212, -0.2208758146, -0.0177585520, 0.0019238071, 0.1072383001, -0.0607223772, 0.1951362789, -0.2379089445, -0.3028478026, 0.2049551457, -0.0967790633, 0.2635005116, -0.2225113064, 0.3644257784, 0.1287560761, -0.1508185118, -0.0115710394, -0.3260675967, 0.0246874895, 0.0816488862, -0.2253767848, -0.0714014322, -0.1173075661, -0.1442213356, -0.0559686907, 0.1858340353, 0.2083649635, -0.0612686798, -0.0279571731, -0.1989874095, -0.0704209134, 0.2636346817, -0.0312232934, -0.1827943176, -0.1855162680, -0.0227965266, -0.2196256071, 0.1799975038, 0.1754577756, -0.1950063854, -0.0578178577, 0.0469290093, 0.1690682769, 0.0960041732, -0.4439003766, -0.1413374096, 0.0324060433, 0.0664762333, 0.2679049373, 0.0358355008, -0.2725278437, -0.0940906852, -0.1166599691, 0.3305493593, -0.1569232941, 0.1990990192, -0.0898349285, -0.2248781472, 0.2105071247, 0.0080621596, -0.0294066966, 0.2172860503, -0.3648013175, 0.1361279190, 0.1214324757, -0.0901139751, -0.1504050493, -0.3913466334, -0.1356251687, 0.1208721548, 0.2399551719, 0.0891869292, 0.0893476754, 0.1033642069, 0.3601844907, 0.1704525352, -0.2035754472, 0.2610648572, 0.1278450191, 0.0444115251, 0.2905131876, -0.2133141607, 0.0073533943, -0.0395249501, -0.0213628467, -0.0101537285, 0.0283939037, -0.0546248332, 0.1824429929, -0.1744714826, 0.2498878837, 0.1486658305, 0.1848429441, -0.0826661065, 0.0571532734, -0.2497217953, 0.0494692661, 0.3169548512, -0.0315344632, 0.0125087760, 0.0357554853, -0.0462734029, -0.1054647267, 0.1703095436, -0.0579879135, 0.0286865234, -0.1295472533, 0.1837438494, 0.0167747345, -0.2187495530, 0.0177969579, 0.1461297125, -0.0282478016, 0.2689650953, 0.0582924522, -0.2529764771, -0.1933594048, -0.1382159293, -0.0635525584, -0.2685398459, 0.2106591612, 0.1224829033, 0.0389133431, -0.1840011626, 0.0535712801, -0.0610047467, 0.2111981958, -0.1011076495, 0.0837893337, -0.1916331947, 0.1099847183, 0.2442717105, 0.2814858556, 0.2232317924, -0.0153698539, 0.0203553010, -0.0822751150, -0.0059946617, 0.0774860010, -0.0535792857, 0.0478695408, -0.1741240174, 0.1762493104, -0.1570039988, -0.1390211582, 0.0874199718, 0.0767254978, 0.2470579892, -0.0994122103, -0.0808433369, -0.2219471484, 0.1552778184, 0.2111221254, 0.0825344622, 0.1064935848, 0.1441057622, 0.0543535724, 0.1567678005, 0.1760689765, 0.0447082147, 0.1918660402, 0.2404597849, 0.2135849595, 0.0341043361, 0.1218551472, 0.0623667166, 0.2739232183, 0.0232052617, 0.1546643972, 0.0748886988, -0.1130914688, 0.0481266491, -0.0121517144, -0.1263602674, 0.2381895781, -0.0500993058, -0.1535522491, -0.0337051488, 0.2171100676, -0.1288270354, -0.1186013520, 0.0704410449, 0.0351224877, -0.0893956944, -0.1751910001, 0.1936317980, -0.2173175663, 0.1677929014, -0.1756552309, 0.1482823789, -0.0897682309, 0.0753853917, -0.0798414424, -0.0778734386, 0.0629955530, -0.0380807258, 0.0761674121, -0.0158909410, 0.1068272740, 0.1666711569};
#endif

#endif
